#ifndef _PERCEPTRONFPGA_DATA_H_
#define _PERCEPTRONFPGA_DATA_H_

#include "perceptron_types.h"

#define PERCEPTRON_CHANNELNUM 10
#define PERCEPTRON_WEIGHTNUM 1800
#define RESHAPESIZE 180

static perceptronDataIn_type reshapeOutTest[RESHAPESIZE]={0,3.5625,0.9375,0,1.5625,0,0,1.625,0,0,2.375,0,0.1875,0,2.0625,0,0,0,1.25,1.25,0,0,0,0,0.125,1.9375,0,0,1.5625,0,3,0,1.25,0,0,1.0625,0,0.125,0.75,2.5625,0,0,0.6875,0,0,1.9375,0,2.1875,0,0,2.1875,0,1.25,0,0,1.5,0.1875,0.125,0.3125,0,0.9375,0,0,0,0.375,0.5625,0,0,0,0,1.8125,0,0,0,0,0,0,0,0.4375,0,0.9375,0,0,0,0,1.9375,0,0,0,0,1.8125,0,1.375,0,0,0,0,0,0.375,0,0,1.5,0.6875,0,0,1.9375,0,0,0,0,0.0625,0,1.875,0,0,2.125,0,0,0,0,2.25,0,0,0,0,1.375,0,0,0,0,0.25,0,0,0,0,0.625,0,0,0,1.1875,0.9375,0,0,0,0,1.375,0,0,0,0,0.25,0,0,0,0,0,0,0,0,0,0,0,0,0,0,0,0,0,0,0,0,0,0.0625,0,0.375,0.375,0,0,0,0.3125};

static perceptronDataOut_type perceptronExpectedOuput[PERCEPTRON_CHANNELNUM]={-.140625,-.5703125,3.6953125,4.0859375,3.15625,3.0546875,5.125,.921875,-.875,-.515625};


static perceptronBias_type  perceptronFixedBias[PERCEPTRON_CHANNELNUM]={1.3315037500000,-0.0549636300000,1.3082518600000,2.5289368600000,1.0078812800000,2.2810044300000,1.7529246800000,1.0208271700000,0.4584857500000,0.1705362900000};


static perceptronWeight_type perceptronFixedWeight[PERCEPTRON_WEIGHTNUM]={-0.1147657930000,-0.0152515573000,0.1150637190000,0.0275963377000,0.1584626880000,0.0335760042000,0.0045560323600,0.0273936875000,-0.0320619754000,-0.0167594552000,0.0250574183000,0.0431612469000,0.1817224770000,0.0524063110000,-0.0332792588000,0.0305322632000,0.0590257794000,-0.1139389500000,-0.0568751134000,-0.0260303766000,0.0323328637000,-0.0201106649000,-0.0375903696000,-0.0024028709200,0.2542203660000,-0.0255960841000,0.0015457789400,-0.0495714061000,0.0358109027000,-0.0458102413000,0.0151131675000,0.0342457928000,-0.0612383150000,0.1956691740000,0.0075392448300,0.0680336654000,0.0047362232600,0.0369072184000,-0.0641380697000,0.0034992680900,0.0959105119000,-0.0302419774000,0.0579055436000,0.0044905375700,0.0021329752600,-0.0093168402100,0.0091243991600,0.0342474915000,-0.0511079393000,-0.0243296064000,-0.0789965168000,-0.0111490702000,0.0452539399000,0.1250220540000,-0.0145944282000,0.0422220565000,0.0122004980000,0.0609845854000,-0.0022107488500,-0.0624824800000,0.0407464430000,0.1545658710000,-0.0455138683000,-0.0467685349000,-0.0282626394000,-0.0181878991000,0.0085328379600,0.0102160405000,0.0202451032000,-0.0345518477000,-0.0138919931000,-0.0078653078500,-0.0035761790400,-0.0533029549000,-0.0222156681000,-0.0522420481000,0.1143073370000,0.0513832234000,-0.0130614378000,0.0840451643000,0.0356539786000,0.0869589075000,-0.0355646499000,-0.0433385856000,-0.0551279932000,-0.1009419190000,0.0849306285000,-0.0451913886000,0.1758426280000,0.0193262976000,0.0401752926000,0.0662627891000,-0.0330997482000,0.0070469472600,-0.0647002235000,-0.0295151602000,-0.0366709866000,0.0745705813000,-0.0351156965000,0.0637236163000,0.0281582959000,-0.0067992787800,0.0406549126000,0.0116903614000,0.0053429394000,-0.0041738417900,0.2492753120000,-0.0575309321000,-0.0252162460000,-0.0360852554000,0.0224675592000,0.0019737228300,-0.0759583786000,0.0723135397000,-0.0390683226000,-0.0512264781000,-0.0836095810000,0.0180648603000,0.0621729605000,0.1831930280000,-0.0742910951000,0.0677693412000,-0.0370661356000,0.0308246668000,0.0858894363000,0.0684703588000,0.0385947973000,0.0432839207000,-0.0451417007000,-0.0205002110000,0.1977304220000,-0.0034454183200,-0.0015665921400,-0.0206955876000,-0.0239972975000,-0.0421352349000,-0.0773100406000,0.0084590334400,0.0587025508000,-0.0023891669700,-0.0250328854000,-0.0317588151000,0.1230273990000,-0.0722702816000,-0.0905889794000,0.0013838631600,0.0264346376000,0.0738682300000,0.0848159641000,0.0497724228000,-0.0233266726000,-0.0479026772000,0.1562644240000,0.0414697416000,-0.0089686522300,0.1036744640000,0.0195238218000,0.1510685530000,-0.1185053740000,-0.0363239571000,0.1720559900000,-0.0643059388000,0.0213089511000,-0.0482058302000,0.0224185791000,-0.0504464917000,-0.0800760537000,0.0508987010000,0.1678922770000,0.0822223946000,-0.1019274220000,-0.0069237556300,0.0132299103000,0.0718955845000,0.0318042338000,0.1932870000000,-0.0141616957000,0.0049043153400,-0.0102253258000,-0.0632243082000,-0.0325528271000,-0.0673327670000,-0.0385758877000,0.0416866802000,0.0646437407000,0.0384713300000,-0.0040792026600,0.2229690250000,-0.0511127971000,-0.0021781260100,-0.0571108572000,0.0650327504000,0.0984516144000,0.0292408131000,0.1048211080000,0.0605797134000,-0.0359528139000,-0.1093583550000,-0.0394762605000,0.0025148137900,-0.0454650633000,0.0648992881000,-0.0265891124000,0.0158673450000,0.0647859722000,0.0153489960000,-0.0188291837000,-0.0355764776000,-0.0344549939000,0.0563117415000,0.0539272167000,-0.0381337442000,0.0961662233000,-0.0168204196000,-0.0092438496600,-0.0405273847000,-0.0242349543000,0.0262551531000,0.0465731844000,-0.0076397098600,0.0666032210000,-0.0684662312000,0.0105680805000,0.0497978255000,0.1524206250000,-0.0326438285000,-0.0349135622000,-0.0074421162700,0.0009636355100,-0.0237842053000,0.0431600437000,0.0145898014000,-0.0367662460000,0.1338177920000,-0.0131188016000,0.0526644997000,-0.0387100354000,0.0984003022000,-0.0230223276000,-0.0698398277000,0.0501792133000,-0.0468540154000,0.0636410341000,-0.0118522896000,0.0180491172000,-0.0072314771800,-0.0129686734000,0.0621601455000,-0.0335499756000,-0.0170627143000,-0.0765010044000,-0.0283840168000,0.0051443632700,0.1310398730000,0.0053078942000,0.0661889240000,0.0556384958000,-0.0002436996440,-0.0027234549600,-0.0858617648000,0.0203313176000,0.1689266710000,-0.0378769562000,-0.0452189036000,-0.0160577632000,-0.0293174405000,-0.0098629565900,-0.0395903811000,-0.0148085700000,0.0385955013000,0.0731411204000,0.0851143822000,-0.0347425081000,-0.0791608021000,-0.0292898901000,-0.0999485031000,0.1272774640000,-0.0231011678000,0.0556694902000,0.0085448510900,0.0021194082200,0.0495811552000,-0.0023855180500,-0.0693617240000,-0.0872877762000,-0.0440715402000,0.0340279005000,-0.0261329319000,0.1690308300000,0.0691626295000,-0.0137250433000,0.1408921480000,-0.0352388956000,-0.0149918944000,-0.0712503493000,0.0022206581200,0.0159577113000,-0.0762523934000,0.0197718460000,0.0733131692000,0.0156637523000,-0.0098507097000,0.0094522424000,0.0353355035000,0.0064051956900,-0.0611952357000,0.2324970220000,-0.0369442962000,-0.0210125502000,-0.0291107129000,0.0082186721300,-0.0185728874000,0.0000034518725,0.0178623591000,-0.0091054830700,-0.0432639308000,-0.0714736879000,-0.0254407469000,0.0798498243000,0.1285003130000,-0.0653722957000,-0.0111362645000,-0.0093856891600,-0.0259465277000,0.1806332470000,0.0404845886000,0.0151239783000,-0.0110225556000,-0.0232537910000,0.0128834769000,0.1766412410000,-0.0322002321000,-0.0325622596000,-0.0033644915100,0.0041997111400,0.0157703515000,-0.0483511128000,0.0022809829100,0.0062548755700,-0.0269209687000,0.0227963664000,-0.0323084965000,-0.0161375180000,0.0089973583800,-0.0627456009000,0.0757902637000,0.0284702852000,0.0553275049000,0.0235014055000,-0.0337221064000,-0.0552151576000,-0.0530753061000,0.1437987830000,-0.0030041032000,0.0333009511000,0.0019362121800,0.0235469267000,0.0080878110600,-0.0194852129000,-0.0177400503000,-0.0430987664000,-0.0056993598100,-0.0176028386000,-0.0786359087000,-0.1061194320000,0.0013220800300,-0.0337890387000,0.2498827580000,0.1277878580000,-0.0268459767000,-0.0101845013000,-0.0492362306000,0.0053967312000,-0.0146696996000,-0.0229565576000,0.1257396190000,0.0129329972000,0.0488797911000,-0.0079357987300,-0.0453049503000,-0.0380122475000,-0.0554182902000,-0.0536682606000,0.0206796732000,0.0572127551000,0.0761900023000,0.0071639306800,0.1779479980000,-0.0248114709000,-0.0255176034000,-0.0604538843000,0.1223320140000,0.0550459810000,-0.0060547227000,0.0856729969000,0.0866002291000,0.0510407835000,-0.1840007310000,-0.0542736873000,0.0239073094000,-0.0676310211000,0.0080520398900,0.0274654701000,-0.0362879671000,0.0561701953000,-0.0311730467000,-0.0083680842100,0.0620039627000,-0.0203172769000,0.0437599644000,0.0116917947000,-0.0067404191900,0.1480374040000,0.0679007173000,-0.0215547383000,0.0505449660000,0.0953880996000,-0.0787074193000,-0.0313778631000,-0.0791183114000,-0.0019048763200,-0.0451305993000,0.0023687724000,-0.0002722147040,0.1321686510000,0.0336695500000,-0.0020594981000,-0.0554712489000,0.0335019566000,-0.0370739959000,-0.0169601385000,-0.0414756238000,-0.0154009936000,0.1176713030000,-0.0160282552000,0.1082078590000,0.0295927264000,0.0772455856000,-0.1045024320000,-0.0114820609000,-0.0270369872000,0.1174516900000,-0.0232506543000,-0.0259071924000,-0.0271014925000,-0.0648366436000,0.0375242196000,0.0609193482000,-0.0119991545000,0.0028614774300,-0.0610207394000,-0.0407260768000,0.0055371550800,0.0321750119000,0.0215657856000,-0.0169628505000,-0.0263928007000,0.1046845470000,-0.0318462923000,0.1248005550000,-0.0033993583600,0.0901216418000,-0.0547371097000,-0.0305928886000,-0.0248453561000,-0.0609838329000,0.0287502594000,0.0509081483000,-0.0218589287000,0.0554037020000,0.0179495048000,-0.0096496511300,0.0688858479000,0.1064934950000,0.1354966910000,-0.0650178269000,-0.0189995989000,-0.0699202716000,0.1055675520000,-0.0768131390000,-0.0422269963000,0.0933762491000,0.0077653536600,0.0173461996000,-0.0740548521000,-0.0606102757000,-0.0259946231000,0.0555425473000,0.0563957952000,0.0609416030000,0.0989997536000,0.0079026930000,0.0066484329300,-0.1008202580000,0.0515678674000,-0.0237248298000,-0.0688403696000,-0.0241477229000,0.1317512390000,-0.0037321092100,-0.1632202420000,0.0052235424500,0.1052873280000,0.0483939759000,0.0455832481000,0.1784625200000,0.0453304835000,0.1243101130000,-0.0666564852000,-0.0710725933000,0.0102669364000,0.0110048708000,-0.0621358529000,0.0308923274000,0.0116801029000,-0.0171746574000,-0.0638224110000,-0.0152532700000,0.0391622558000,0.1359445150000,-0.0604193024000,0.0115097053000,-0.0141711906000,0.0176370926000,0.0867835954000,0.0075492989300,0.1481827050000,-0.0015460833700,-0.0360781439000,-0.0172113515000,0.1086524130000,0.0440179892000,-0.0251857024000,0.0118262982000,-0.0743276030000,-0.0222945306000,-0.0609339364000,-0.0064760916900,0.0022921566900,0.0666498765000,0.0703707263000,0.0170251094000,0.0652834028000,-0.0554631241000,-0.0280141979000,-0.1177682430000,-0.0162540842000,0.0223794058000,0.1319576650000,0.0366832614000,-0.0023529613400,0.0112532545000,0.1644534470000,0.0446560606000,-0.0203699693000,0.0159979947000,0.0195306949000,-0.0434000343000,-0.0333088897000,-0.0663241073000,-0.0408617221000,-0.0378071517000,-0.0144043937000,-0.0408474393000,-0.0502025038000,-0.0337865576000,0.0090820062900,0.0564679354000,0.2059375490000,0.0400275961000,0.0243544597000,0.0561218522000,-0.0107524404000,0.0235047042000,-0.0099813286200,0.0919863433000,-0.0152267125000,0.0165260602000,-0.0786105916000,-0.0353264734000,-0.0112730404000,0.0227897037000,-0.0322228335000,0.0234538857000,0.0491964482000,0.0045364555000,-0.0410505645000,0.1043240200000,-0.0279226657000,-0.0291682296000,-0.0114068110000,-0.0013559882100,0.0516506732000,-0.0408453606000,0.0723686591000,0.0220009070000,-0.0693593472000,0.0835658759000,-0.0211774688000,-0.0147267701000,-0.0367804728000,-0.0121370973000,0.0639914870000,-0.0005463883280,0.1251527970000,0.0130474828000,0.0499441549000,0.0487082005000,-0.0090391626600,-0.0614234172000,-0.0047746254100,-0.0052987686400,0.0899759978000,0.0221449081000,0.0166003853000,-0.0391153879000,0.0444658697000,-0.0127715226000,-0.0346831903000,0.0037712927400,-0.0066505027900,-0.0016508547100,-0.0379513316000,-0.0075508025500,0.0557954870000,-0.0093612549800,0.0092153884500,-0.0243322905000,0.0861547887000,-0.0184104629000,-0.0360255577000,0.1793636980000,-0.0474249497000,-0.0837717429000,-0.0547115505000,-0.0188375451000,0.0153742339000,-0.0281717535000,-0.0016597836500,0.1387458150000,0.1286024150000,-0.0642774999000,0.2055378260000,-0.0418326110000,0.0528266318000,-0.0384688526000,0.0059047127100,-0.0094543872400,-0.0552613214000,-0.0797938630000,-0.0659503415000,-0.0626378953000,-0.0093779107600,0.1861631570000,0.0062495814600,0.0682489872000,0.0718421489000,-0.0184497982000,-0.0101238880000,-0.0459697060000,0.0194622558000,0.1778974680000,-0.0372640342000,-0.0467353128000,-0.0298731886000,-0.0555704534000,0.0106406314000,-0.0305360761000,-0.0214761011000,0.0166633260000,0.0420172103000,0.0132900495000,0.0705134347000,-0.1111440060000,-0.0764642954000,-0.0528506599000,0.0359485708000,-0.0383176729000,0.0994141102000,0.0866372287000,0.0219242759000,0.0290073473000,-0.0398008339000,0.0216690432000,-0.0264764130000,-0.0757729262000,0.0467224382000,-0.0618621111000,0.1685111080000,-0.0375586636000,-0.0074507920100,0.1642827990000,-0.0387046635000,-0.0380280837000,-0.0539862737000,-0.0085516301900,0.0050448868400,-0.0114208180000,-0.0316158943000,0.0713289976000,-0.0002944910670,0.0042440830700,0.0398280919000,0.0669632256000,0.0176018011000,0.0130291795000,0.1868755520000,-0.0603845902000,-0.0693078041000,-0.0756904930000,0.0184315480000,0.0146626337000,-0.0700813606000,-0.0024166135100,-0.0493786223000,-0.0512641184000,-0.0662974715000,-0.0212267656000,0.1131555360000,0.2092849170000,-0.0137020694000,-0.0851453617000,-0.0314875059000,0.0610033795000,0.0763648376000,0.0684404522000,0.0341794714000,0.0287171192000,-0.0861361474000,0.0979859233000,0.0574344434000,0.0093003651100,-0.0276597310000,-0.0123219639000,-0.0035446251300,-0.0060119903600,-0.0225412492000,-0.0576396212000,0.0612693653000,0.0161368269000,0.0844145268000,0.0960585475000,-0.0118445680000,-0.0177894458000,-0.0422354080000,-0.0753677487000,-0.0568302535000,-0.0137573276000,-0.0418178067000,0.1181673930000,0.0067141531000,-0.0368629433000,0.0618248247000,0.0386916213000,0.0077727930600,0.0770828277000,0.0105430372000,0.1478835050000,-0.0474599786000,-0.0183007102000,0.1074155050000,-0.0361429453000,0.0642810315000,-0.0134754833000,0.0387254395000,-0.0630252063000,0.0227734465000,-0.1069073530000,0.1123525720000,-0.0274817254000,-0.0474617966000,-0.0290657114000,-0.0579162538000,0.0566553697000,0.0167346690000,0.1739579590000,0.0030823680600,-0.0055854758200,-0.0057892426800,0.0026426736700,-0.0096077611700,-0.0309965666000,0.0109297596000,0.0136031732000,0.0774292946000,0.0295477919000,0.0235790890000,0.1212558150000,-0.0700568408000,-0.0248904545000,0.0082910917700,0.0218277816000,0.0351637006000,-0.0739435181000,0.0272765514000,-0.0710590109000,-0.0268170685000,0.1218264550000,-0.0072468500600,0.0046308767100,-0.0503569320000,0.0116540920000,0.0161916241000,-0.0085848402200,0.0929344818000,0.0138150901000,-0.0051760505900,0.0522211790000,0.0057470626200,-0.0494877882000,0.0709616914000,-0.0469795093000,0.0632551610000,-0.0273187216000,0.0141573260000,-0.0727613568000,-0.0196577720000,0.0171122812000,-0.0034916561600,0.0453885794000,-0.0054826182300,-0.0180171188000,-0.0288715437000,0.0171807744000,0.1114310770000,0.0110682491000,0.0042057926800,0.0015068412800,-0.0193250701000,-0.0460825674000,-0.0481215455000,0.0310167391000,-0.0223036092000,-0.0226162039000,0.0063379509400,0.0015661690800,0.0096157472600,-0.0032812417500,0.0139191328000,0.0623597689000,0.0714118555000,-0.0583939515000,0.1707344200000,-0.0385869630000,0.0692657530000,-0.0138417426000,0.0012464113500,-0.0281330366000,-0.0133332815000,-0.0931839496000,-0.0533440746000,-0.0264799576000,0.0104056187000,0.1731921140000,-0.0147703895000,0.0564864390000,0.0187251549000,-0.0462117754000,-0.0035177185200,-0.0589519218000,0.0148527911000,0.1618520170000,0.0038275695400,-0.0450247154000,-0.0532241762000,-0.0267923921000,0.0187045280000,-0.0463855080000,-0.0177002195000,0.0021004201800,0.0091938255400,0.0965035781000,0.0043830885600,-0.0267992280000,-0.0480537936000,-0.0370430388000,-0.0080200880800,-0.0331399702000,0.1139916180000,-0.0118452115000,-0.0222524870000,0.0284738299000,-0.0071273134100,-0.0366429761000,-0.0477259569000,-0.0313808210000,0.0223319046000,-0.0020439368700,0.1450123940000,-0.0339898467000,-0.0157560278000,0.1791929600000,-0.0772279948000,-0.0397858284000,-0.0506428741000,-0.0024316315500,0.0599707887000,-0.0493803360000,0.0108689833000,0.0110226907000,-0.0108941114000,0.0344062559000,0.0393322185000,0.0120612578000,-0.0329141431000,0.0003462902970,0.1560178250000,-0.0186880957000,-0.0778250843000,-0.0281317700000,0.0775963441000,0.0023475533800,-0.0363702066000,-0.1114991380000,-0.0550712720000,-0.0351631157000,-0.0816890076000,-0.0373807997000,0.1317002030000,0.1971500520000,-0.0186789408000,-0.0797232762000,-0.0487881862000,0.0426242240000,0.1066846480000,0.0178460274000,0.0671584979000,-0.0493002199000,-0.0514586680000,0.0913529173000,0.0780574307000,0.0221463814000,-0.0101850452000,0.0286868401000,-0.0092825172500,-0.0424075052000,-0.0018124654900,-0.0378533378000,0.0457396656000,-0.0536241867000,0.0447976850000,0.0999903604000,-0.1255957340000,0.0607245117000,-0.0351057351000,-0.0392380208000,0.0116200503000,-0.0468879044000,-0.0292537101000,0.0958201662000,-0.0597111024000,0.0262836944000,0.0676607266000,0.0006435874380,0.0081081893300,0.0429017469000,0.0432663783000,-0.0396241620000,0.0093848379300,-0.0518567748000,-0.0348514915000,0.0275018215000,-0.0134479273000,-0.0133275772000,-0.0405754708000,-0.0394259542000,0.0084074707700,-0.0209949240000,0.0972705707000,0.0433095433000,-0.0447558016000,-0.0294537526000,-0.0562113300000,0.0403716452000,0.0216314215000,0.1560910790000,-0.0421541072000,-0.0231770407000,0.0360947400000,-0.0104638636000,-0.0390562899000,-0.0335939117000,-0.0693945289000,0.0114879543000,0.0969146565000,0.0718672797000,0.0030307322700,0.2258438920000,-0.0927684978000,-0.0654620826000,-0.0267999526000,0.0628951192000,0.0152500179000,-0.0608198568000,0.0391453207000,-0.0194977894000,-0.0495023318000,0.0758538321000,-0.0198681708000,0.0159552880000,-0.0180689711000,0.0040584309000,-0.0130194202000,-0.0328139849000,0.0864023715000,-0.0189693887000,-0.0288185347000,0.0727124810000,0.0186803397000,-0.0163684674000,-0.0200145710000,-0.0178146213000,0.0518872738000,0.0357764401000,0.0001503180250,0.0254808646000,-0.0206036270000,0.0635965988000,-0.0481728949000,-0.0033792196800,0.0138500500000,-0.0392602719000,0.0201079957000,-0.0177506842000,0.0513602868000,-0.0179116819000,-0.0470900349000,-0.0123447552000,0.0527034104000,0.0253239777000,-0.0217221472000,-0.0588593856000,-0.0160932876000,0.0193840358000,-0.0106612137000,0.0594814979000,0.0222487077000,0.0588198900000,-0.0179234650000,0.0092762075400,-0.0015712407200,0.0369436927000,0.0716069192000,-0.0125500588000,0.0071182409300,-0.0253223814000,-0.0214591492000,0.0181197915000,0.0172458943000,-0.0616722703000,-0.0271862317000,-0.0126798656000,-0.0151165035000,0.0650835261000,0.0199039318000,-0.0031104234500,0.0290064067000,-0.0421057455000,0.0406414904000,-0.0187740661000,-0.0229479074000,0.0969960690000,-0.0238807891000,-0.0404597521000,-0.0289456360000,-0.0457667485000,0.0279771648000,-0.0074609168800,-0.0031807464500,0.0558354333000,-0.0347347744000,0.0270367656000,0.0366019569000,-0.0042374888400,-0.0099223339900,-0.0246313624000,0.0402597561000,-0.0882197097000,0.1728040130000,-0.0384151302000,0.0731138438000,0.0282038245000,-0.0070077842100,-0.0508056507000,-0.0395848304000,-0.0329827033000,-0.0384380631000,0.0023977241900,0.0993751138000,0.0021989385100,0.0335238688000,0.0715106055000,0.0393338762000,-0.0111627067000,0.0365208276000,-0.0753151774000,-0.0737230107000,-0.0363463536000,0.0604454465000,-0.0003440857400,-0.0992780104000,0.0062120324000,0.0565553308000,0.0410218835000,-0.0062728240200,0.0723133683000,0.0391910300000,0.1095393600000,-0.0587927178000,0.0002333690060,-0.0010715741700,0.0200691018000,-0.0609788895000,0.0128684472000,-0.0030385500300,0.0060906452100,-0.0780179352000,0.0111896293000,0.0267266948000,0.1307500600000,-0.0438547507000,0.0036601596500,-0.0018384263400,-0.0225324370000,-0.0192456525000,-0.0752577782000,0.1273281570000,0.0244365763000,-0.0007233551000,0.1133351030000,0.0031482349100,0.0242237784000,-0.0726547092000,0.0946401358000,-0.0468530543000,0.0732284114000,-0.0786924213000,-0.0721959248000,0.0396135189000,0.0781564191000,0.0126947314000,0.1053784710000,0.0069572031500,-0.0125615112000,-0.0360487029000,-0.0175032783000,-0.0368087813000,-0.0623222664000,-0.0582754575000,0.1509251000000,-0.0620586686000,0.0533182621000,0.0628188923000,-0.0083343014100,-0.0136403842000,0.0032752719700,0.0255922507000,-0.0521746539000,-0.0125048980000,0.0455095507000,-0.0454940088000,0.0288781468000,-0.0130781708000,0.0194295794000,-0.0617385022000,0.0033774874200,0.0047722393600,0.0007286171310,0.0921399966000,0.0015439391100,0.0484618507000,-0.0358020104000,-0.0416265503000,0.0318609141000,-0.0653944314000,0.1169748380000,0.0184093323000,-0.0274347719000,-0.0055444920400,0.0222927555000,0.0088640591100,0.0150211379000,0.0010328820200,-0.0017876151300,0.0772086158000,-0.0243967380000,0.0008175963890,0.0336586982000,-0.0581989549000,-0.0044278116000,0.0428661332000,-0.0418892540000,0.0491242334000,-0.0464849584000,0.0432664678000,-0.0282954387000,-0.0664655864000,0.1161328180000,-0.0101712700000,-0.0126371384000,-0.0118475100000,-0.0618323386000,0.0229026135000,0.0227814838000,0.1298948230000,0.0134887630000,0.0438029394000,0.1025581810000,-0.0611726716000,-0.0177843384000,0.0301007666000,-0.0398748778000,0.1166230890000,-0.0249703471000,0.0104807587000,-0.0283640325000,0.0152626289000,0.0113063911000,-0.0009619074990,-0.0437470339000,-0.0250627585000,-0.0393536352000,0.0320225358000,0.0102758659000,-0.0110884523000,0.0204148758000,-0.0007910019490,0.0544230305000,0.0269035902000,-0.0196808074000,-0.0285733230000,0.2027184960000,-0.0995487869000,-0.0328212269000,-0.1140515580000,-0.0539109707000,0.0032709562200,-0.0217255205000,0.0244412925000,0.1913284660000,0.0572651438000,-0.0407382287000,0.0871151835000,-0.0031643244400,0.0498432666000,-0.0409770980000,0.0694303885000,-0.0208311975000,-0.0323955119000,-0.0572529659000,-0.0493278950000,-0.0664230213000,0.0700449198000,0.0588141158000,0.0779282227000,0.0672129169000,0.0888618529000,-0.0406413376000,-0.0137069784000,-0.0429383367000,0.0000632787851,0.0985932499000,-0.0361474864000,-0.0001460022180,-0.0609872937000,-0.0138217323000,-0.0165760238000,-0.0301688295000,0.0000363063082,0.0437987521000,0.2021528330000,-0.0570312291000,-0.0102427648000,-0.0418012068000,-0.0121988356000,-0.0011740503800,-0.1094245840000,-0.0519142896000,0.1004565580000,0.0535690598000,-0.0403229371000,-0.0252190679000,0.0323729590000,-0.0181398410000,0.0489388630000,-0.0744713172000,-0.0604646094000,0.0118617909000,0.1110838880000,0.0230926722000,0.0127667636000,0.1708116380000,-0.0192759894000,-0.0344974399000,-0.0191535447000,-0.0769794434000,-0.0963826478000,0.0041554393200,-0.0846598446000,0.1956845070000,-0.0091412691400,0.0433572605000,0.0879972503000,-0.0056230714500,0.0269935802000,-0.0213985685000,0.0159052312000,-0.0449284129000,-0.0340474024000,-0.0022379893300,-0.0366642587000,0.0265155993000,0.0451702289000,-0.0131492903000,0.0345977917000,-0.0326604359000,-0.0705676004000,0.0425095744000,0.0244344119000,0.0798139796000,-0.0042733103000,-0.0655149668000,0.0675855502000,0.0638394207000,0.0507297926000,-0.0074920216600,0.1121116060000,-0.0111034941000,-0.1604538560000,0.1020755990000,0.0464651920000,0.0173463989000,0.0666772723000,-0.0032301163300,0.0322545320000,-0.0489030220000,-0.0844849348000,-0.0000181054929,0.0736175179000,0.0139526241000,0.1131075470000,0.0968878791000,-0.0857452676000,0.0080209719000,-0.0763611495000,-0.1008505520000,-0.0215738136000,-0.0138066988000,0.0055128932000,0.1669665280000,0.0200997293000,-0.0079004839100,0.0136799589000,-0.0077935899600,0.0800690278000,0.0365158133000,-0.0391701609000,0.1031917780000,-0.0956177935000,0.0559289157000,0.0090540787200,0.0669014752000,-0.0092203756800,-0.0021357238300,-0.0784702227000,-0.0239058547000,0.1314522770000,-0.1273177560000,0.1862838420000,0.0006676184710,0.0089136902200,-0.0136031918000,-0.0520234071000,0.0073628812100,0.0610929132000,0.0938066766000,-0.0307450537000,0.0270564836000,-0.0113151707000,-0.0197439939000,0.0003683722460,-0.0014277577900,0.0273324139000,-0.0019111851000,0.0296927057000,-0.0230963808000,0.0194297172000,0.0661988184000,-0.0546492040000,-0.0127010019000,0.0965714976000,-0.0074556442000,-0.0076200948100,-0.0552450344000,0.0310425647000,-0.0189149808000,-0.0616478994000,0.2050457890000,-0.0632416159000,0.0203730762000,-0.0536896735000,-0.1109835800000,0.0045910286700,0.0146861197000,0.2087985870000,0.1141962560000,-0.0225782543000,0.0977039635000,-0.0237056296000,-0.0628615320000,0.0613632947000,-0.0610225648000,0.1320516620000,-0.0521803014000,-0.0143923787000,-0.0251671989000,-0.0116847502000,0.0033798792900,-0.0040666768300,-0.0001061750740,0.0005745624660,0.0264199488000,-0.0406246223000,0.0401313715000,-0.0134386104000,-0.0422773287000,-0.0044928328100,0.1108840780000,-0.0117182257000,-0.0513303466000,0.0078503526700,0.0814778134000,-0.0501497835000,-0.0393957645000,-0.0175749213000,-0.0086740860700,-0.0662656203000,0.0224989112000,-0.0443202779000,0.1487518850000,0.0200630389000,-0.0074236313800,0.0426185504000,-0.0080033680400,0.0231668949000,-0.0401578955000,0.0343217999000,-0.0207569730000,0.0088077718400,-0.0243996978000,0.0074905795000,-0.0279278867000,0.0096963029400,0.1029098480000,0.0627954826000,0.0006402339790,0.0356950611000,0.0161143616000,-0.0359120779000,-0.0659469664000,0.0073847677600,0.0756078959000,-0.0147079993000,-0.0087416432800,-0.0503189005000,-0.0159122106000,-0.0055111502300,-0.0110798068000,-0.0115870936000,0.0297175236000,-0.0365649499000,0.0864424556000,-0.0151802069000,-0.0048960298300,-0.0725697726000,0.0302374847000,0.0030614470600,-0.0393078849000,0.1505322310000,-0.0269811917000,-0.0140699726000,-0.0382950120000,0.0527509823000,-0.0423965901000,0.0359101705000,-0.0447039679000,-0.0425391085000,0.0129261706000,0.0687126145000,0.0281301588000,0.0065009002600,0.1941707880000,-0.0535651334000,-0.0631984174000,-0.0575192273000,-0.0618469007000,-0.0311474726000,0.0168127045000,-0.0502135642000,0.1271312680000,0.0517015792000,0.0412975587000,0.0191917457000,-0.0016345448100,0.0145019973000,-0.0407793075000,0.0160493944000,-0.0266345814000,-0.0278826747000,-0.0226667114000,-0.0052483649900,-0.0165624730000,0.0397386663000,0.0123636629000,0.0141084800000,-0.0234355219000,-0.0441730432000,-0.0088184746000,0.0135296732000,0.0773194507000,-0.0444663279000,-0.0741220862000,0.0566531271000,0.0257889517000,0.0156097682000,-0.0114554800000,0.0964493230000,-0.0733987764000,0.0083463890500,0.0553587489000,0.0942787454000,-0.0283710510000,0.1551951170000,-0.0036348081200,0.0194427222000,-0.0150514385000,-0.0704202056000,0.0259858370000,0.0016840166600,-0.0685749725000,0.1066600460000,0.0773050487000,-0.0409183241000,0.0333091766000,-0.0620891824000,-0.0521032326000,-0.0459673665000,-0.0213444475000,0.0360876545000,0.0334865227000,-0.0322524309000,0.0526572913000,-0.0440808609000,0.0070157572600,0.0742534995000,-0.1050693020000,-0.0301255863000,0.0092105763000,0.0418931767000,0.0577094182000,0.0917734951000,0.0356307924000,-0.0239065811000,-0.0727192760000,-0.0008973348300,-0.0129518062000,-0.0220871642000,-0.0231844913000,0.0445199497000,0.0335489102000,0.0373029374000,-0.0283209831000,-0.0847178623000,0.0274813883000,0.0243954547000,0.0778805315000,-0.0647000447000,0.0296772551000,-0.0183954779000,0.0270580761000,-0.0288921185000,-0.0312134009000,0.0085008312000,0.0042472421200,0.0474861786000,0.0076456712600,0.0179328229000,0.0721091852000,-0.0512699634000,-0.0146338278000,0.0493086353000,-0.0112138651000,0.0246246867000,0.0082084480700,-0.0095312744400,-0.0096029490200,-0.0737400353000,0.1697134820000,-0.0527215227000,0.0002532496580,-0.0097098024600,-0.0886495635000,-0.0255625844000,0.0225063749000,0.1455860730000,-0.0179467108000,0.0135970432000,0.0732833892000,0.0325229913000,0.0031685154000,0.0419928133000,-0.0330888443000,0.0829005167000,0.0018129355700,-0.0008384658140,-0.0391980857000,0.0388913639000,0.0192325376000,-0.0257973652000,-0.0453875847000,-0.0062225377200,0.0098662525400,0.0562935323000,-0.0069112870800,-0.0446505472000,0.0038631539800,0.0186438374000,-0.0401385613000,0.0272119008000,0.0022053513700,0.0628638640000,-0.0170957334000,0.0331075974000,-0.0030469165600,0.0057033859200,0.0177228898000,-0.0537716597000,0.0309077017000,-0.0441248082000,0.0278699864000,-0.0206788331000,0.0290751457000,0.0254029129000,0.0001099118160,-0.0142301619000,-0.0195109937000,0.0113950977000,-0.0078960154200,-0.0100404415000,0.0268204249000,-0.0689429268000,-0.0438019484000,0.0444164872000,0.0008627799110,0.0470413826000,0.0597787350000,0.0841556191000,-0.0232065227000,-0.0099896397400,0.0048332316800,-0.0054248459600,0.0388772525000,0.0079238759400,0.0035637328400,0.0013519763000,-0.0114501007000,-0.0077882767700,-0.0193387046000,-0.0379296578000,0.0302787106000,-0.0621194094000,0.0811406374000,0.0020249693200,0.0663742125000,-0.0360066257000,-0.0143685266000,0.0074171656700,-0.0614339635000,0.0996006802000,0.0173522271000,0.0450104475000,-0.0241302736000,0.0445703529000,-0.0385771841000,-0.0359210037000,-0.0218975153000,-0.0182895325000,0.0000494252890,0.0379822068000,0.0326385647000,0.0391909219000,0.1185772790000,-0.0077394507800,-0.0007076470650,-0.0199666116000,-0.0895422325000,-0.1156670230000,-0.0401008986000,0.0914939567000,0.0808770433000,-0.0546856783000,0.0027168581700,0.0967087597000,-0.0060157701400,0.0669841245000,0.0950364396000,-0.0296058897000,0.0098958741900,-0.0745709017000,0.0259790234000,-0.0033159132600,0.0368361734000,0.0149547318000,0.0361697786000,0.0105124721000,-0.0191873442000,-0.0496085361000,-0.0113144629000,0.0162890144000,0.0214133821000,-0.0334256776000,0.0152109601000,0.0546048656000,0.0010733036300,0.0301368851000,-0.0682455897000,0.0774903223000,-0.0519000478000,0.0070264521100,0.0520326793000,-0.0186397769000,0.0419461653000,0.0034156718800,0.0940487757000,-0.0160411745000,0.0392910056000,-0.1279438290000,0.0416741930000,0.1507907960000,-0.0506838486000,0.0825558752000,0.1331620510000,-0.0997755975000,-0.0175857618000,-0.0731755197000,-0.0633921027000,-0.0398645326000,-0.0475344397000,-0.0359562635000,0.2359594850000,-0.0317443460000,0.0715494305000,-0.0256013330000,-0.0281354077000,-0.0109562995000,-0.0259855520000,0.0215142816000,-0.0210686140000,0.0210938714000,0.0548952632000,0.1231914830000,-0.0607127734000,0.1169436280000,-0.0079763736600,-0.0308111664000,0.0280926116000,-0.0157874003000,0.0268301871000,-0.0010122263300,-0.0285137556000,0.0049275942100,0.0429873019000,-0.0376218781000,0.0328873470000,-0.0079359496000,0.0320329033000,-0.0227220263000,-0.0022456632000,0.0082327947000,-0.0008727749810,0.0156629346000,-0.0075537357500,-0.0312665105000,0.0528269112000,0.0156397410000,-0.0429981798000,0.0197777450000,0.0307309087000,-0.0216973405000,-0.0119746579000,0.0277840812000,-0.0129483417000,0.0651101470000,-0.0386175662000,0.0591667406000,0.0064754514000,-0.0321667679000,0.0865688622000,-0.0745184869000,0.0234040506000};


#endif

