#ifndef __WEIGHT_HPP__
#define __WEIGHT_HPP__

//#include "constant.hpp"


const double kernel_ConvLayer1[1728]={0.7761616110000,0.9606727360000,0.5013308530000,-0.0839314014000,0.0849607587000,-0.2369989450000,-0.7019474510000,-0.4982360300000,-0.8312696810000,-0.3754360380000,-0.2355460520000,-0.1456470640000,-0.1981747600000,-0.0770766437000,0.1729985770000,0.1130851060000,0.3688130970000,0.1909033660000,-0.5900384190000,-1.0230404100000,-0.9908240440000,0.3439519700000,-0.2119675280000,0.1663971990000,0.6892462370000,0.5805483460000,0.7384802100000,-0.2484985440000,0.5329026580000,-0.1145591360000,0.8504904510000,-0.9077081680000,-0.0484563261000,-0.2221180350000,-0.0983766839000,0.2531833350000,0.1297572260000,0.2777488530000,-0.1384319220000,0.6568479540000,-0.8510327340000,0.0331506543000,-0.2715982500000,0.0192192756000,0.2334871740000,-0.2208280120000,0.2144834400000,-0.1482766870000,0.4215205310000,-0.3126667740000,-0.0910729915000,-0.3470349910000,0.3635927740000,0.1667777150000,0.1605129990000,0.1823263470000,-0.3647924660000,0.3851953740000,-0.0468360633000,-0.3925626870000,-0.6644983290000,1.3537291300000,-0.6511814000000,-0.6712344880000,-0.0975284800000,0.4182899590000,-0.4409953360000,-0.3386161920000,1.2198613900000,-1.2887643600000,0.3327432270000,0.7690532210000,0.1851865800000,0.1814533170000,-0.3622502390000,0.9160788060000,-0.6160528060000,-0.3722832200000,0.6381055120000,0.4446543460000,-1.2552243500000,0.8505275850000,-0.0735485926000,-0.3606807590000,1.1083577900000,-0.6786811950000,-0.7497556810000,1.3703894600000,-0.9281941650000,-0.5221053360000,-0.0819130465000,-0.0361909047000,0.1181290970000,-0.4088777900000,0.0111070881000,0.4269825520000,-0.6754366160000,0.1563115570000,0.6382412310000,-0.7655752300000,0.1456117330000,0.2948571740000,-0.8198156360000,0.7229141590000,0.3628154400000,-0.8749945160000,1.0360182500000,-0.0991380811000,-0.1343584360000,-0.2277050170000,-0.2094043490000,-0.2920978960000,0.2555900220000,-0.2422325910000,0.1926342990000,0.3124441500000,-0.0923550576000,0.3538517650000,-0.0404979438000,0.1863558740000,-0.2331310210000,0.3061938880000,0.1617405560000,-0.3318961860000,-0.2623671890000,-0.1587551830000,0.6467464570000,-0.3382250070000,0.2982880180000,0.3985575140000,0.3468816280000,0.5061826710000,-0.7358564730000,-0.9276512860000,-0.7940911650000,0.2223760490000,0.2014367130000,0.1565365050000,-0.3745020930000,-0.3707374930000,-0.2128688250000,-0.0528255403000,-0.3478350940000,0.4828534720000,0.3499782980000,0.3629438580000,0.6558308010000,-0.5483700630000,-0.3596840500000,0.0044712061100,-0.6710056660000,-0.6478567120000,-0.2677979770000,-0.6804131870000,-0.5698521730000,-0.7350226640000,1.0163359600000,0.9763570430000,0.1280872230000,0.6747286320000,0.8782420160000,-0.1083791330000,0.1816208960000,-0.0089564966000,-0.1297446040000,-0.1038114130000,-0.0002476489750,-0.0034791461700,-0.0566490553000,-0.1078024950000,0.1107593100000,-0.4886862040000,-0.1091915290000,-0.2079978730000,-0.1479203850000,0.1032361840000,-0.1482520700000,-0.1086784150000,-0.1854390500000,0.0417783819000,-0.0032571142100,0.0179515891000,0.3239552380000,0.0856090635000,0.2053454520000,-0.0007580721870,-0.2026241120000,-0.4423979520000,-0.2261393220000,0.1528265030000,0.4670834840000,0.1353648010000,0.1721414770000,-1.2654273500000,0.1347897800000,0.3549329340000,-0.0459278747000,0.2502920330000,0.2693303230000,0.4260698260000,0.5820069310000,0.1311619430000,-1.3656023700000,0.0490492135000,0.1027617980000,-0.5359364150000,-0.0153195579000,-0.1307693270000,0.2167465980000,-0.1848917010000,0.0096631217700,-0.5538508300000,-0.0053516374900,0.0336832404000,0.1670387240000,0.1611832830000,0.1341668670000,-0.0685884506000,-0.4563064580000,0.1460339430000,0.6810993550000,0.1364966930000,-0.4397750790000,-0.1928357480000,0.1886789650000,0.1325397790000,0.0776030272000,0.1405606570000,0.0047662667900,0.1249220220000,-0.1773272010000,-0.1227058540000,-0.1342332510000,0.0832230374000,-0.0107530113000,-0.6567291020000,-0.2543151080000,0.3677163720000,0.1262641400000,-0.8785840870000,0.2657433750000,0.5448268060000,0.5283089880000,0.0962008610000,-0.6397858260000,-0.2715334590000,0.5382936000000,-0.1034136790000,-1.0040371400000,0.7616409060000,0.7583816650000,-0.2831840220000,0.0651805401000,0.5335224270000,0.6663490530000,-0.7626212840000,-0.0160889793000,0.9352787140000,-0.4503769580000,-0.7256405950000,0.1629943850000,0.0558659136000,0.4221111830000,-0.2648732070000,-0.5822328930000,0.3100620510000,0.8812299970000,-0.3675387800000,-0.8288015720000,0.2120081480000,0.0456986539000,-0.1554922910000,0.2192902860000,0.2067401860000,0.0619207062000,0.1803195030000,-0.1823933270000,-0.2891426680000,0.1435653270000,0.1200838690000,0.0967009738000,-0.2147392630000,0.1844260100000,-0.0431125462000,-0.3369602560000,0.1351437120000,-0.1161980410000,-0.1174349110000,-0.7089212540000,-0.4454170760000,0.5191833380000,-0.7874727250000,-0.3038546740000,0.2663311060000,-0.3384951650000,0.6722462770000,0.8322185870000,-0.1081046690000,0.0386742800000,0.2074313760000,-0.3427958190000,0.1282597330000,0.2049970030000,-0.0300388671000,-0.0163536984000,0.1286611110000,0.0854424164000,-0.5365259050000,-0.5118703840000,0.0016931516600,0.0221886169000,-0.2571894530000,0.0574207418000,-0.2728377280000,-0.4742009340000,0.1332660170000,-0.0043030390500,0.0957279205000,0.0817951411000,0.2694942360000,0.4734209180000,0.4248397950000,0.0675371066000,0.1001015680000,0.4640215640000,0.9144732950000,0.7026280160000,-0.9827018380000,-0.6614809630000,0.6676084400000,-0.1840445550000,-0.8927027580000,0.0463108718000,0.0605659820000,0.4699165520000,0.0413589925000,-0.3263905350000,-0.1898575720000,0.1684534400000,0.1131733950000,-0.1665552110000,-0.2584559920000,-0.2071691750000,-0.5121855140000,-0.7119922040000,0.7395989890000,0.4702298050000,-0.3219763040000,0.2089967880000,0.8136795160000,-0.0988249928000,0.1036246570000,0.4106863140000,-0.4386150840000,0.3431945740000,-0.7790254950000,0.3516065780000,-0.0774561316000,0.2879866060000,-0.2250795510000,0.3901026840000,-0.3028975430000,-0.2987265290000,-0.3309127390000,-0.8540530200000,1.0607096000000,-0.7076201440000,0.6580007080000,0.2014403050000,0.1014101130000,0.3556778730000,-0.5275259610000,0.3653771280000,-0.5901864170000,0.1999187170000,-0.1721931840000,0.3701451720000,-0.1808232520000,0.2113317550000,0.1703279170000,-0.1046442910000,-0.6279518010000,-0.4416163560000,-0.1218745260000,0.3073253630000,0.4294372200000,0.1651799830000,0.3148717280000,0.1606688500000,-0.1777796600000,-0.4656522570000,-0.5094960330000,-0.3415274620000,-0.3128027020000,0.4325352010000,0.4180582170000,0.4016733770000,0.4119491880000,0.3866526780000,0.5606325860000,-0.0473576896000,-0.0289283749000,-0.2249154150000,-0.4842656850000,-0.5936114190000,-0.4686649740000,0.7594502570000,-0.0307850968000,0.1117883100000,0.1972181350000,-0.6241058710000,-0.0119302245000,-0.1143838690000,-0.2816573380000,-1.0544213100000,0.2249090820000,0.4583903550000,-0.1581726670000,0.3395078180000,0.0980788618000,0.0609535500000,0.1540086870000,0.1258919840000,-1.1589869300000,0.0278784391000,-0.0758771151000,0.3988330660000,0.6008093950000,-0.0726074725000,0.4743789430000,0.1098782350000,-0.1921147110000,0.1910009680000,-0.6617560390000,0.4364266990000,-0.7342251540000,1.1416064500000,-0.5512717370000,0.2753437460000,-0.4424386320000,0.3469838200000,0.5906560420000,-0.5009595750000,0.3626158240000,-0.3694733980000,0.9038082960000,-0.8273482920000,0.4726739530000,-0.9485980270000,0.3020053210000,-0.2475301470000,-0.7404559250000,0.5446950790000,-0.7108665700000,1.4849813000000,-0.3811745940000,0.5333420040000,-0.3181026580000,-0.0695996433000,0.3347944620000,0.3742727640000,-0.5724317430000,0.1640722900000,0.2651126380000,-0.0984289274000,-0.2195958500000,-0.2699127200000,-0.3640584950000,0.4777829350000,0.2976488170000,0.2750181260000,0.1796637180000,-0.2294361000000,0.1536008860000,0.2594705220000,-0.0989383459000,0.1472916450000,-0.6180884840000,-0.5538360480000,0.2069980500000,-0.6768219470000,-0.6619071960000,0.1323243680000,-0.0843673870000,0.1227257330000,0.3170816900000,0.1081550640000,-0.3813616340000,-0.1030873360000,-0.2972909210000,-0.2452774490000,0.1255961950000,-0.4035759870000,0.5452058910000,0.2600771490000,0.1030912550000,-0.1977940650000,0.1154653430000,-0.1066624970000,-0.0556389242000,-0.1272734550000,0.0456461273000,0.3614738880000,-0.5049983260000,0.2779522840000,0.3193185030000,0.2571417690000,0.2846365270000,0.4494616990000,-0.3638231750000,0.4795399010000,0.3997523490000,-1.3623408100000,0.2535025780000,0.2607405480000,0.4543415310000,-0.0027902387100,-0.0645792484000,0.0431026854000,-0.3468089700000,0.2438347940000,-0.3608683050000,0.1407050640000,0.1637733880000,0.1333319990000,0.0391394049000,0.0474885292000,0.0980154648000,0.0241918210000,0.8793854710000,0.0540702529000,-0.4115646480000,-0.3408985140000,-0.4701122340000,-0.0053964937100,-0.1360123460000,-0.0913418755000,0.3843562600000,0.9345847960000,0.1957826760000,0.3688272830000,0.2942605020000,0.1177660450000,0.3855483230000,0.2398983090000,-0.3192061780000,-1.0606238800000,-0.2933216690000,-0.3630139230000,-0.5708461400000,-0.4944117960000,0.0009033770770,0.8287358880000,0.3951044380000,0.0205945186000,-0.0056001376400,0.3391485810000,-0.0120757986000,-0.4963497520000,-0.3201974030000,0.3615498840000,0.5078314540000,-0.1862600590000,0.2119204550000,-0.2515814600000,-0.1646052300000,0.2415670160000,-0.2864231770000,-0.3867898290000,1.1342122600000,0.4119241540000,-0.6398157480000,-0.2671963270000,-0.2242582740000,0.4399056430000,-0.0081728063500,-0.0176538676000,-1.0191168800000,0.2977796490000,1.0520808700000,-0.4372859600000,-0.9749903680000,0.2702965740000,1.0605018100000,-0.4685311320000,-0.3301133220000,0.3474438490000,0.2797769610000,-0.0845393538000,0.0893208012000,0.3260014950000,-0.5420916680000,-0.0359266102000,-0.1276644920000,0.3643285040000,0.0776772648000,-0.0329544172000,-0.0795998350000,-0.1681269260000,-0.0493190959000,-0.0019717824200,-0.0276968088000,-0.1244367440000,-0.5827855470000,-0.7021635770000,-0.5215594170000,-0.4095676840000,0.2156486210000,0.5452907680000,0.0253300555000,0.6320468190000,0.6974213120000,0.1314041020000,-0.2601000960000,-0.4750238060000,-0.1548300240000,0.0102060121000,0.0467592254000,-0.2248520260000,-0.2314288320000,-0.3357346650000,-0.1829795690000,-0.3054481740000,-0.2555223700000,-0.0312559456000,-0.0797960311000,-0.0914065167000,-0.3399351540000,-0.0019662808600,-0.3864851890000,0.2102633860000,-0.0520233288000,0.0603706501000,0.2581303420000,0.0817479715000,-0.0574391820000,-0.0258142240000,0.2955504060000,0.1038879160000,0.0958177596000,0.1523538830000,0.4946006830000,-0.0034437002600,-0.0860862955000,0.0067160050400,-0.1210554840000,0.1865649670000,0.3227162960000,-0.2246591150000,-0.1249499540000,0.3796724380000,-0.3006380200000,-0.1508806200000,0.4774703680000,-0.3213101630000,-0.3508503140000,0.5747080450000,0.4575624170000,0.2767131030000,-0.6517670750000,0.4637909830000,0.3321082590000,-0.6517076490000,0.5111340280000,0.0242791325000,-0.6753096580000,-0.1681857260000,0.3721006810000,-0.3176755910000,-0.0712392777000,0.5590545540000,-0.3251329660000,-0.2143991590000,0.7810283900000,-0.5900858040000,-0.0859970152000,0.7502856250000,0.0702002347000,1.0234071000000,0.0475938506000,-0.2559724450000,-0.5204976800000,-0.9527080660000,-0.0390405394000,0.6457830670000,0.2664800290000,0.3610368370000,0.5698226090000,-0.4049740730000,-0.2380110920000,-0.0176833533000,-0.9397851820000,-0.2694234850000,-0.8227375750000,-0.5607072710000,-0.2890188100000,-0.9431991580000,0.2975588440000,0.3258054260000,0.3256047070000,1.2507104900000,0.3650926350000,0.5679031010000,0.6769955160000,-0.1352719370000,0.5726792220000,-0.0603342727000,-1.0290900500000,0.3189977410000,-0.5795958640000,-0.2961095270000,0.0243667830000,-0.0085969129600,-0.0636295080000,-0.1073244290000,-0.0701267943000,-0.1328929960000,-0.0451136418000,-0.2148169130000,0.3184256550000,-0.2185170800000,-0.0520809218000,-0.1235531270000,0.0213039778000,0.1917895230000,0.0593109243000,0.0133234430000,-0.0081016514500,-0.0904714391000,-0.8843783140000,1.0996254700000,-0.5501735210000,-0.5952330830000,1.0487746000000,-0.4679243860000,-0.2430501880000,0.6737516520000,-0.1208753810000,-0.0918642059000,0.1999062150000,-0.3327433470000,0.2943420710000,0.4312806430000,-0.1106544510000,-0.0594680123000,-0.0695751160000,-0.3601101340000,0.0751179829000,0.3221611680000,0.1162745880000,-0.4140428600000,0.0692141429000,-0.3032193180000,-0.1616777630000,0.1820073130000,0.0847652107000,0.0782794952000,-0.2431405780000,-0.1475811000000,-0.0523255020000,-0.2975893620000,-0.1784607320000,0.2787822480000,-0.0729663298000,0.4577544930000,0.1538754110000,0.6810919640000,0.2770555020000,0.3937373460000,0.7821019890000,-0.4552727340000,-0.0360474512000,-0.3823373020000,-1.1266986100000,-0.8690183160000,-0.3675473930000,0.1868526490000,-0.5652836560000,0.5019398330000,0.4787698390000,0.0557301752000,0.5719519260000,-0.0305684768000,-0.0615172535000,0.0738672912000,0.0578781627000,0.0441446118000,0.1878797410000,-0.0775025487000,-0.1662136760000,0.0861263946000,-0.0230434518000,-0.3879975970000,0.0264081284000,0.4294380840000,0.1779449730000,0.3306816520000,-0.1084127950000,0.3525405530000,-0.1619268950000,-0.3787381050000,-0.1811168940000,0.4394479100000,0.2456540020000,0.4239067140000,0.3346391620000,-0.4707365930000,0.0787807629000,-0.5472720860000,-0.5659776930000,-0.0192909949000,0.6721776130000,-0.6684578660000,-0.7799957990000,0.3376645150000,0.5617122050000,0.3703409430000,-0.8003948330000,0.3918370600000,-0.2324859500000,0.3713310960000,0.0567676350000,-0.5856028800000,-0.0977516174000,0.4565481250000,1.2277692600000,-1.0612044300000,-0.3818813260000,0.1333673150000,0.1149724570000,-0.3092768790000,-0.4480114580000,0.5630419250000,-0.0997348800000,0.0189665779000,-0.3971723910000,0.3813169000000,-0.2990659480000,0.5470482710000,-0.5597189660000,-0.4544786210000,-0.1237401140000,-0.2294118110000,0.0858094320000,-0.2191693930000,0.1812987920000,0.1644600330000,1.0964372200000,-0.0688454285000,-0.2053519930000,0.1909536720000,-0.1652758570000,0.0347622633000,-0.1893002390000,-0.2044655980000,-0.2130917460000,0.1510624890000,-0.1441876140000,-0.2171721610000,-0.1153551560000,-0.1281297950000,0.2735978360000,0.1768596320000,0.1046054070000,0.2880934480000,-0.9282770750000,-0.1644179970000,0.7809537650000,0.5500575900000,-1.1171743900000,-0.4645727280000,0.6128994230000,0.3381359880000,-0.1306709950000,-0.0447812267000,1.2135062200000,-0.3360217210000,0.0914848521000,0.0990664735000,-0.6727632880000,-0.5552337170000,0.1376567780000,0.0615926012000,-0.3988989890000,-0.1570762100000,0.4162113370000,0.4476247430000,-0.7086657290000,-0.0296072476000,0.3030033110000,0.2217147650000,-0.1810380070000,0.2754090430000,0.0090807657700,-0.2917129700000,0.0524069965000,-0.2324596050000,-0.1046814990000,-0.0535122678000,0.0481675118000,0.3595827220000,0.2231030610000,-1.0426698900000,-0.0131838899000,0.5783703330000,-0.2934212980000,-0.1131092380000,0.3778336050000,0.5596070890000,0.1078513410000,0.5778000950000,-0.4351390900000,-0.3399334850000,0.5543391700000,0.0370769389000,-0.5566148160000,-0.1665627960000,0.2803878780000,-0.6793510910000,-0.3657428620000,0.2505036890000,0.2024458650000,0.4120261670000,0.3594674470000,0.8835608960000,0.4232875410000,-0.3062709270000,-0.2163832340000,-0.4290017190000,-0.2304083560000,0.1050704720000,0.2132610680000,-0.0192705151000,0.5703343150000,0.2179212870000,-0.2086572500000,0.7936449050000,0.4116220180000,0.2777658700000,-0.0508899540000,-0.2704830170000,0.0406381860000,-0.7667754890000,-0.7575237150000,-0.0949988514000,-0.6994196770000,0.4716771250000,1.0030765500000,-0.8951945900000,-0.2676502170000,0.8807171580000,-0.2244314700000,-0.3544538920000,0.2077100430000,0.3628441690000,-0.1727200750000,-0.2666907310000,0.2683038410000,-0.1163845810000,-0.1901868880000,0.1769430790000,-0.0403822586000,-0.0277364329000,0.6129915710000,-0.3754749300000,-1.1052212700000,1.0110412800000,0.3513120710000,-0.9206101890000,0.3494721060000,0.4138231580000,-0.2873447540000,-0.2352055910000,-0.8134703640000,0.3519035280000,-0.9351301190000,0.4540484550000,0.7708804010000,0.6433069710000,0.8844948410000,-0.7789027090000,0.2675627770000,-0.3206269440000,0.0809086263000,-0.4780395030000,-0.1268897350000,0.0997857824000,-0.1421836910000,0.1659208240000,0.0437591262000,0.3019206520000,0.0121243801000,-0.2351514850000,-0.1306917370000,0.1077453640000,0.0824693367000,0.0370076559000,-0.0840165988000,-0.0268851295000,-0.4245948490000,-0.2496663330000,-0.2791729270000,-0.2544285060000,-0.5478817220000,0.1177170500000,0.3232834040000,-0.4677859250000,0.4547622500000,0.6963468790000,0.7758747940000,0.2889387610000,0.2665098910000,0.1200022920000,0.0644135401000,0.3127516210000,-0.2766078110000,-0.2607777420000,-0.4162697490000,-0.2045876090000,-0.2649391290000,-0.1441984330000,-0.1214411930000,0.2507980470000,0.1228095070000,-0.1530303660000,0.2865727540000,-1.1509389900000,-1.6476943500000,-0.9597531560000,0.5818619730000,0.3209525350000,0.2534726260000,0.7655963300000,0.9782131910000,0.9533720610000,0.9465523360000,1.1436175100000,0.8798778650000,-0.1069958510000,0.0012324254500,-0.1637280580000,-0.9405910370000,-0.9225026970000,-0.8916845320000,0.1375770120000,0.5292922850000,0.1358141010000,-0.4168778060000,-0.3017594520000,-0.1058890070000,0.1309661420000,-0.0402853042000,-0.0387358405000,-0.3330463770000,-1.2690819500000,0.4039795990000,-0.8209587340000,-0.7537882920000,1.1639803600000,-0.1894721980000,0.5387905240000,1.5997697100000,0.5914748910000,0.4698172510000,-0.1113571750000,0.2679348290000,-0.0442939773000,-0.5824438930000,-0.0365662500000,-0.3528520760000,-0.5836301450000,-0.1101696790000,0.6615905170000,-0.3424376550000,0.5010625120000,0.7440770270000,-0.3039181830000,0.2647880320000,-0.1396061330000,-1.2230371200000,-0.0283903480000,-0.0956639722000,0.0222488455000,-0.2235666960000,0.1975468550000,-0.2545768620000,-0.4981586340000,0.1873124690000,-0.3667015430000,-0.2309420560000,-0.3760062750000,-0.2956521810000,-0.0138775287000,0.3348432480000,-0.0946531072000,-0.3245177270000,0.4796964530000,0.1171978940000,-0.1768703610000,-0.2385184620000,-0.0600076206000,-0.2910214660000,0.3359903990000,0.1401901540000,-0.6003977060000,0.5647854210000,0.2798540000000,0.1380272950000,0.0628947020000,-0.0519331135000,0.0265160240000,0.0235512387000,0.0612003691000,0.0295967627000,0.1159063430000,0.0278140213000,0.0319015644000,-0.3398974540000,-0.3258075710000,-0.2402551170000,-0.6201828720000,-0.4463309050000,-0.2612237040000,-0.5290793780000,-0.3018570240000,-0.3775427040000,0.3910014330000,0.3303729300000,0.2408677790000,0.8492426870000,0.3736022110000,0.1364149600000,0.5915102360000,0.0624693893000,-0.4252059760000,-0.4682980480000,-0.3763530850000,0.3489549760000,0.0658017024000,0.0472067520000,0.5511521700000,-0.0410694629000,0.4563891290000,-0.1372645200000,-0.1288158150000,-0.0482368805000,0.1257340310000,0.1285900770000,0.1045902220000,0.0674458817000,-0.2129216050000,0.2320480050000,-0.1552266330000,-0.0595473424000,-0.0967702419000,0.3610724810000,0.4116091130000,0.2975313660000,-0.0884070024000,-0.4587379400000,-0.0060500996200,-0.1659256220000,0.1491557660000,0.7400535350000,-0.2087953980000,-0.5389768480000,0.2894573210000,-0.0867039636000,-0.2527889610000,-0.2833380100000,-0.1814522300000,-0.2490985990000,-0.2697148320000,0.6019917730000,-0.0593849309000,-0.2820254270000,0.7646709080000,0.4666562080000,-0.4063951970000,-0.5776054260000,-0.3446506260000,-0.1960809230000,0.3732417230000,-0.0555416718000,-0.0538713075000,0.2208077310000,0.2676277760000,-0.2068663690000,0.0533015616000,0.2016558350000,0.1510556490000,-0.1515365840000,0.0246955976000,-0.1197884980000,-0.1152433310000,0.0645690262000,-0.0913435593000,-0.5383570790000,0.1542761620000,0.4820969100000,-0.2312504350000,0.2045064870000,0.2148396370000,-0.6155658360000,-0.1669247450000,0.3301827910000,-0.3840850290000,0.0648552850000,-0.1896258740000,-0.0433666743000,0.2549166680000,0.0647297427000,-0.1760717780000,0.3732716140000,0.0133305062000,0.5249239210000,-0.1069761440000,-0.5442521570000,0.2801710960000,-0.3656375110000,-0.0671028122000,-1.0581803300000,-0.1770441680000,0.9694777130000,0.3187987210000,-0.1346597080000,-0.5261259680000,0.2721052170000,-0.3416734340000,-0.1004208700000,-0.4295690360000,0.0701081455000,0.7756826880000,-0.2004565450000,0.2688103020000,0.3271857500000,0.3757012190000,0.1072583790000,-0.2446610180000,0.1082858520000,-0.0232415237000,-0.5310452580000,0.1470392500000,1.1232734900000,-0.4181665480000,0.3461506070000,0.4404219990000,-1.0344626900000,0.0031445177700,0.0362350941000,-0.9385947590000,-0.4115763310000,-1.0538119100000,0.4660570920000,-0.3094120920000,-0.4137996730000,1.1245737100000,-0.1926596910000,0.0976279378000,0.8002431390000,0.3696274760000,-0.8316484690000,0.1877143530000,-0.2610580030000,-0.4176495370000,0.6733205910000,-0.0201059096000,0.3031018380000,0.1143934130000,-0.7336147430000,-0.5278543830000,0.0973225161000,-0.6108583210000,0.0842338130000,0.4222026770000,-0.6859593990000,0.1198277850000,0.6479278210000,0.1463012550000,0.3279059530000,0.1324779840000,0.8075643780000,0.4234670700000,-0.3425474760000,0.4726495440000,-0.3218208250000,-0.3228079380000,0.3570975960000,0.1121961180000,0.0876308158000,0.6879855390000,-0.0024264685300,-0.5568791630000,0.3270901440000,-0.7008113270000,-0.3719565570000,-0.1136366800000,-0.0751667693000,-0.1280416400000,-0.0104617616000,0.2706147130000,0.0890363082000,-0.2210751180000,0.0807894394000,-0.0431700423000,-0.5574997660000,-0.0162469111000,-0.4668656290000,-0.1297456470000,0.5315810440000,-0.2092452200000,-0.1644556820000,0.4959362150000,-0.3165078760000,-0.1293264630000,0.5647066240000,0.1166120920000,-0.2787079810000,0.5195433500000,-0.1095669640000,-0.3864782750000,0.5406762960000,-0.0476430543000,0.7247506380000,-0.8889014120000,1.0438729500000,-0.3261521460000,0.3635107580000,0.2690864500000,-0.3830358680000,0.1113560500000,-0.2736625370000,0.6857547760000,-1.1524376900000,-0.1170397330000,-0.0384858698000,0.5728731750000,-0.6058333520000,-0.0976060927000,0.4105536640000,-0.2558259070000,0.5129109030000,-0.4614173170000,0.8043881650000,-0.6565892700000,0.3660058680000,-0.2925036550000,-0.3127215500000,0.4683300260000,-0.2571388780000,0.4866246280000,-0.1955646720000,-0.1268394590000,0.1359021810000,-0.0677410290000,-0.0112975985000,-0.0881358013000,-0.1144697290000,-0.0450648218000,-0.1569955650000,-0.0143943653000,0.1744726300000,-0.0236625560000,-0.1359696240000,0.1910308450000,0.0451797210000,0.0141181834000,-0.1391415750000,0.3621213440000,-0.6179757710000,0.0790634155000,0.7671947480000,-0.5416666870000,-0.1910870820000,0.4324798880000,0.0790660754000,-0.3582810760000,0.2635954020000,-0.2763723730000,0.3250170050000,0.0154084321000,-0.6040958170000,0.2124256340000,0.1797493850000,-0.5719516870000,0.5750751500000,0.1373836990000,-0.7589398030000,0.1117106450000,0.8627583980000,-0.7785570620000,0.6448760630000,0.6023716330000,-1.0060247200000,0.1729492690000,-0.1052152290000,0.1880482140000,-0.0377079993000,0.1527173670000,-0.1971396650000,0.1475299600000,0.0959931687000,-0.3359947200000,0.1822846830000,-0.5393444900000,-0.4971048240000,-0.6071735020000,0.9621056910000,0.5216028090000,-0.3665575680000,1.1905856100000,0.7527627350000,-0.6865442990000,0.5076442360000,0.4936369360000,1.2094376100000,-1.4668626800000,-1.0661110900000,0.6310388450000,-1.7266587000000,-1.2963644300000,0.8871697780000,0.0116793150000,-0.0314943977000,-0.5046653150000,0.3594498930000,0.3856612150000,-0.3335532840000,0.6792706850000,0.5735729340000,-0.0957218111000,0.1892819260000,0.8858073950000,0.2041424210000,-0.3688524070000,1.1090554000000,0.5198118690000,-1.0867686300000,-0.2007112950000,-0.4617696110000,-0.2879181800000,-0.6589936610000,-0.6166013480000,0.0493435562000,-0.3587878050000,-0.5042188760000,0.8849011660000,0.1768165230000,0.1123612450000,-0.0666345954000,-0.1582913850000,0.3597256240000,-0.1169810740000,-0.3970626000000,-0.2197355180000,0.2879326640000,-0.0863559097000,0.2567977310000,0.4705529210000,0.3601172570000,0.5504970550000,0.0034719537900,-0.8443587420000,-0.2824138700000,0.0750292987000,-0.9521640540000,-0.3218479750000,-1.1508058300000,-0.3829070930000,-1.4650219700000,-0.3261026140000,2.0003566700000,0.3784038720000,-0.2838020920000,2.3186435700000,0.5846169590000,0.7712562080000,0.0346839353000,0.8751332760000,0.2384952750000,-1.2710472300000,-0.1154061330000,0.2354906500000,-1.4968283200000,-0.2661934790000,0.2821667190000,-0.2053924050000,-0.8367512820000,0.6358577610000,0.1588398370000,-0.6874213220000,0.6046687960000,0.4046272640000,-0.3750209210000,0.2660007180000,-0.1211429090000,-0.1845677790000,0.2166706770000,-0.2604483070000,-0.1742592750000,0.4973971550000,-0.0784565359000,-0.2294435050000,-0.5715625290000,0.4668016430000,0.6310691240000,-0.6490182280000,0.1024619560000,0.7330806850000,-0.7311704750000,-0.3705956940000,0.2663024070000,-0.4301195140000,0.0141184973000,-0.3440511820000,-0.5024333000000,-0.7303588990000,-0.2306697960000,0.5379948620000,0.6267796750000,0.6095986370000,-0.0082989605100,0.2650803920000,-0.2197212430000,0.0157359131000,-0.1053380890000,0.0338188782000,0.2727284730000,0.3144355420000,-0.0121431826000,-0.1385627990000,0.2620416580000,-0.1106185240000,-0.0214116052000,-0.2967107590000,0.0690555125000,0.0385998972000,0.0523340777000,-0.1474957620000,-0.4592483640000,-0.3910441990000,0.8681174520000,-0.4543787540000,-0.4728363160000,0.6812562940000,-0.5251708030000,-0.6856859920000,0.6757286790000,0.1871510150000,0.1500049380000,0.3046447340000,0.0681126416000,-0.0351264216000,-0.1728612180000,0.1701700390000,-0.0522728413000,-0.0425796807000,-0.2648858130000,0.0074117961300,-0.1211625410000,0.0841672793000,0.1808544840000,-0.3267699780000,0.0879336372000,0.3554835920000,-0.1315573160000,-0.1003401200000,-0.0811052024000,-0.0749045908000,0.0407426581000,0.1046091620000,0.1247320250000,0.0909130946000,-0.0667517409000,0.0185467638000,-0.0931538790000,-0.3201987150000,-0.1731444150000,0.3722612860000,0.7348417640000,0.7240685220000,-0.3580555920000,-0.6225996020000,-0.6100069880000,-0.0983139873000,-0.4269632400000,-0.3119182590000,0.4066606160000,0.4972050490000,0.5522412060000,-0.1332526950000,-0.2216185780000,-0.1645340170000,-0.8123145100000,-0.8294351700000,-0.7338138820000,-0.3623822030000,-0.4585888680000,-0.4148008230000,0.3769564930000,0.6085135940000,0.6096346970000,0.1273103360000,0.1784980000000,-0.0643757805000,0.2903732660000,0.2936880290000,0.0901121870000,-0.0174602624000,0.0041214670100,-0.0649658367000,0.2773950990000,0.3166496750000,0.4347636400000,0.2032968100000,0.1548579630000,0.2000503240000,-0.5037359600000,-0.5084277990000,-0.3244622350000,0.6816867590000,-0.1340615000000,-0.8572872880000,-0.0785024315000,0.2286243890000,0.5006656050000,-0.2276905180000,-0.0013928761500,0.3775410650000,0.2331275640000,-0.4100501240000,-0.7723652120000,-0.1286613350000,0.0218286831000,-0.0649800822000,0.2173875870000,0.1773629780000,0.0444499925000,0.2541725640000,-0.0303269550000,-0.5397209530000,-0.0642205179000,0.4857937690000,0.1083316950000,0.0582374707000,0.0570721701000,-0.4298398790000,0.2520349320000,0.8728957180000,-0.1237918960000,0.0370484889000,0.0710067078000,0.0526225790000,-0.2684246600000,-0.1235178630000,-0.1648497730000,-0.2634395960000,-0.1485614630000,-0.2427099790000,0.2029996070000,-0.1622311470000,-0.0670856014000,0.4227495790000,0.2473614660000,0.2295055240000,-0.0149430595000,0.6273396610000,0.3450256880000,-0.1790080960000,0.0780765191000,0.0629022121000,-0.2047153860000,-0.0689455569000,-0.0134706739000,0.1888806070000,0.2397536490000,0.5317792890000,-0.2471005470000,-0.5013744240000,-0.6922541260000,0.2530462150000,0.0001061237420,0.1625371130000,0.0320874117000,0.1870410590000,0.5655234460000,-0.4912800790000,-0.3588039580000,-0.7245370750000,0.3889790180000,0.3345317840000,0.1283656660000,0.1319849790000,-0.0651236922000,-0.1605194810000,-0.2057803420000,0.1579210910000,-0.1921510100000,-0.0724048615000,0.1814141270000,0.2295219750000,0.1344512250000,0.3336029650000,0.2859475310000,-0.6855657700000,-0.3073640170000,-0.1325198710000,-0.5613699560000,-0.2710693780000,-0.2268317790000,0.2382483630000,-0.0963920131000,-0.0000823019072,0.3494933250000,0.1271794290000,-0.0099959243100,0.1833120580000,0.1306485090000,0.0814887732000,-0.3159921770000,-0.5739347930000,-0.7373695970000,0.4718219340000,0.4788095360000,0.1569397600000,0.1300532670000,0.0628211498000,0.2869563400000};
const double bias_ConvLayer1[64]={-0.9617897900000,-0.2391798600000,-0.2321240200000,-0.2245342000000,-1.7185274400000,-0.2524460600000,-0.7080735600000,-2.0726964500000,-0.4035240100000,-0.6526834400000,-1.0509039200000,-0.0880491300000,-0.5128815800000,-0.1940542300000,-0.6280686300000,-1.9937020500000,-0.1056308000000,-1.5370880400000,-1.4209113100000,-2.4368856000000,-0.8111919200000,-0.5212647300000,-2.3510184300000,0.1026709800000,-0.1742512300000,-0.3482195100000,-1.0418412700000,-0.4719406700000,-0.2588361800000,-0.9344834700000,-0.3976385000000,-0.9192675400000,-0.3798554200000,-1.3915671100000,-2.1627762300000,-0.3962894700000,-0.4370814900000,-0.6653985400000,-0.1934417000000,-0.7580792900000,-1.3643215900000,-0.7431048800000,-0.5761945200000,-1.8029329800000,-0.3820757900000,-0.9582402700000,-0.2395801700000,-1.2310397600000,-0.8434010700000,-1.0831687500000,-0.1909389800000,-0.2665811500000,-0.6936373700000,-1.0632129900000,-0.1808564100000,-0.4847334900000,-1.3118434000000,-1.0116632000000,-0.4544087400000,-1.6926289800000,-2.2852299200000,-0.3285010500000,-0.2950741400000,-0.1684494900000};

#endif
